digraph Tree {
node [shape=box, style="filled", color="black"] ;
graph [ranksep=equally, splines=polyline] ;
0 [label="Mg <= 2.7\nentropy = 2.21\nsamples = 149\nvalue = [49, 50, 10, 11, 7, 22]\nclass = 1", fillcolor="#fefffd"] ;
1 [label="Na <= 13.785\nentropy = 1.894\nsamples = 46\nvalue = [0, 9, 0, 11, 7, 19]\nclass = 3", fillcolor="#f9d2e9"] ;
0 -> 1 [labeldistance=2.5, labelangle=45, headlabel="True"] ;
2 [label="Al <= 1.38\nentropy = 1.234\nsamples = 20\nvalue = [0, 9, 0, 10, 0, 1]\nclass = 2", fillcolor="#edf6fd"] ;
1 -> 2 ;
3 [label="Ca <= 9.96\nentropy = 0.592\nsamples = 7\nvalue = [0, 6, 0, 0, 0, 1]\nclass = 1", fillcolor="#ade95a"] ;
2 -> 3 ;
4 [label="entropy = 0.0\nsamples = 1\nvalue = [0, 0, 0, 0, 0, 1]\nclass = 3", fillcolor="#e5399d"] ;
3 -> 4 ;
5 [label="entropy = 0.0\nsamples = 6\nvalue = [0, 6, 0, 0, 0, 0]\nclass = 1", fillcolor="#9de539"] ;
3 -> 5 ;
6 [label="Mg <= 1.985\nentropy = 0.779\nsamples = 13\nvalue = [0, 3, 0, 10, 0, 0]\nclass = 2", fillcolor="#74baed"] ;
2 -> 6 ;
7 [label="RI <= 1.523\nentropy = 0.439\nsamples = 11\nvalue = [0, 1, 0, 10, 0, 0]\nclass = 2", fillcolor="#4da7e8"] ;
6 -> 7 ;
8 [label="entropy = 0.0\nsamples = 10\nvalue = [0, 0, 0, 10, 0, 0]\nclass = 2", fillcolor="#399de5"] ;
7 -> 8 ;
9 [label="entropy = 0.0\nsamples = 1\nvalue = [0, 1, 0, 0, 0, 0]\nclass = 1", fillcolor="#9de539"] ;
7 -> 9 ;
10 [label="entropy = 0.0\nsamples = 2\nvalue = [0, 2, 0, 0, 0, 0]\nclass = 1", fillcolor="#9de539"] ;
6 -> 10 ;
11 [label="Ba <= 0.2\nentropy = 1.058\nsamples = 26\nvalue = [0, 0, 0, 1, 7, 18]\nclass = 3", fillcolor="#f08cc6"] ;
1 -> 11 ;
12 [label="Si <= 71.32\nentropy = 0.544\nsamples = 8\nvalue = [0, 0, 0, 0, 7, 1]\nclass =  ", fillcolor="#9355e9"] ;
11 -> 12 ;
13 [label="entropy = 0.0\nsamples = 1\nvalue = [0, 0, 0, 0, 0, 1]\nclass = 3", fillcolor="#e5399d"] ;
12 -> 13 ;
14 [label="entropy = 0.0\nsamples = 7\nvalue = [0, 0, 0, 0, 7, 0]\nclass =  ", fillcolor="#8139e5"] ;
12 -> 14 ;
15 [label="Mg <= 2.23\nentropy = 0.31\nsamples = 18\nvalue = [0, 0, 0, 1, 0, 17]\nclass = 3", fillcolor="#e745a3"] ;
11 -> 15 ;
16 [label="entropy = 0.0\nsamples = 17\nvalue = [0, 0, 0, 0, 0, 17]\nclass = 3", fillcolor="#e5399d"] ;
15 -> 16 ;
17 [label="entropy = 0.0\nsamples = 1\nvalue = [0, 0, 0, 1, 0, 0]\nclass = 2", fillcolor="#399de5"] ;
15 -> 17 ;
18 [label="Al <= 1.395\nentropy = 1.514\nsamples = 103\nvalue = [49, 41, 10, 0, 0, 3]\nclass = [", fillcolor="#fcefe5"] ;
0 -> 18 [labeldistance=2.5, labelangle=-45, headlabel="False"] ;
19 [label="Ca <= 8.305\nentropy = 1.296\nsamples = 65\nvalue = [44, 12, 8, 0, 0, 1]\nclass = [", fillcolor="#efb387"] ;
18 -> 19 ;
20 [label="RI <= 1.518\nentropy = 0.994\nsamples = 11\nvalue = [5, 6, 0, 0, 0, 0]\nclass = 1", fillcolor="#effbde"] ;
19 -> 20 ;
21 [label="RI <= 1.517\nentropy = 0.863\nsamples = 7\nvalue = [5, 2, 0, 0, 0, 0]\nclass = [", fillcolor="#efb388"] ;
20 -> 21 ;
22 [label="entropy = 0.0\nsamples = 2\nvalue = [0, 2, 0, 0, 0, 0]\nclass = 1", fillcolor="#9de539"] ;
21 -> 22 ;
23 [label="entropy = 0.0\nsamples = 5\nvalue = [5, 0, 0, 0, 0, 0]\nclass = [", fillcolor="#e58139"] ;
21 -> 23 ;
24 [label="entropy = 0.0\nsamples = 4\nvalue = [0, 4, 0, 0, 0, 0]\nclass = 1", fillcolor="#9de539"] ;
20 -> 24 ;
25 [label="Mg <= 3.345\nentropy = 1.206\nsamples = 54\nvalue = [39, 6, 8, 0, 0, 1]\nclass = [", fillcolor="#edaa7a"] ;
19 -> 25 ;
26 [label="Ca <= 9.28\nentropy = 1.449\nsamples = 7\nvalue = [3, 3, 0, 0, 0, 1]\nclass = [", fillcolor="#ffffff"] ;
25 -> 26 ;
27 [label="Mg <= 3.335\nentropy = 0.811\nsamples = 4\nvalue = [3, 0, 0, 0, 0, 1]\nclass = [", fillcolor="#eeab7b"] ;
26 -> 27 ;
28 [label="entropy = 0.0\nsamples = 3\nvalue = [3, 0, 0, 0, 0, 0]\nclass = [", fillcolor="#e58139"] ;
27 -> 28 ;
29 [label="entropy = 0.0\nsamples = 1\nvalue = [0, 0, 0, 0, 0, 1]\nclass = 3", fillcolor="#e5399d"] ;
27 -> 29 ;
30 [label="entropy = 0.0\nsamples = 3\nvalue = [0, 3, 0, 0, 0, 0]\nclass = 1", fillcolor="#9de539"] ;
26 -> 30 ;
31 [label="RI <= 1.517\nentropy = 0.983\nsamples = 47\nvalue = [36, 3, 8, 0, 0, 0]\nclass = [", fillcolor="#eca571"] ;
25 -> 31 ;
32 [label="RI <= 1.516\nentropy = 0.918\nsamples = 6\nvalue = [2, 0, 4, 0, 0, 0]\nclass =  ", fillcolor="#9cf2c0"] ;
31 -> 32 ;
33 [label="entropy = 0.0\nsamples = 2\nvalue = [2, 0, 0, 0, 0, 0]\nclass = [", fillcolor="#e58139"] ;
32 -> 33 ;
34 [label="entropy = 0.0\nsamples = 4\nvalue = [0, 0, 4, 0, 0, 0]\nclass =  ", fillcolor="#39e581"] ;
32 -> 34 ;
35 [label="Ca <= 8.525\nentropy = 0.828\nsamples = 41\nvalue = [34, 3, 4, 0, 0, 0]\nclass = [", fillcolor="#ea995e"] ;
31 -> 35 ;
36 [label="RI <= 1.518\nentropy = 0.918\nsamples = 9\nvalue = [6, 3, 0, 0, 0, 0]\nclass = [", fillcolor="#f2c09c"] ;
35 -> 36 ;
37 [label="entropy = 0.0\nsamples = 6\nvalue = [6, 0, 0, 0, 0, 0]\nclass = [", fillcolor="#e58139"] ;
36 -> 37 ;
38 [label="entropy = 0.0\nsamples = 3\nvalue = [0, 3, 0, 0, 0, 0]\nclass = 1", fillcolor="#9de539"] ;
36 -> 38 ;
39 [label="Na <= 13.62\nentropy = 0.544\nsamples = 32\nvalue = [28, 0, 4, 0, 0, 0]\nclass = [", fillcolor="#e99355"] ;
35 -> 39 ;
40 [label="entropy = 0.0\nsamples = 18\nvalue = [18, 0, 0, 0, 0, 0]\nclass = [", fillcolor="#e58139"] ;
39 -> 40 ;
41 [label="Si <= 72.335\nentropy = 0.863\nsamples = 14\nvalue = [10, 0, 4, 0, 0, 0]\nclass = [", fillcolor="#efb388"] ;
39 -> 41 ;
42 [label="K <= 0.01\nentropy = 0.439\nsamples = 11\nvalue = [10, 0, 1, 0, 0, 0]\nclass = [", fillcolor="#e88e4d"] ;
41 -> 42 ;
43 [label="entropy = 0.0\nsamples = 1\nvalue = [0, 0, 1, 0, 0, 0]\nclass =  ", fillcolor="#39e581"] ;
42 -> 43 ;
44 [label="entropy = 0.0\nsamples = 10\nvalue = [10, 0, 0, 0, 0, 0]\nclass = [", fillcolor="#e58139"] ;
42 -> 44 ;
45 [label="entropy = 0.0\nsamples = 3\nvalue = [0, 0, 3, 0, 0, 0]\nclass =  ", fillcolor="#39e581"] ;
41 -> 45 ;
46 [label="Ca <= 6.435\nentropy = 1.13\nsamples = 38\nvalue = [5, 29, 2, 0, 0, 2]\nclass = 1", fillcolor="#b8ec6f"] ;
18 -> 46 ;
47 [label="entropy = 0.0\nsamples = 2\nvalue = [0, 0, 0, 0, 0, 2]\nclass = 3", fillcolor="#e5399d"] ;
46 -> 47 ;
48 [label="Si <= 72.725\nentropy = 0.879\nsamples = 36\nvalue = [5, 29, 2, 0, 0, 0]\nclass = 1", fillcolor="#b3eb66"] ;
46 -> 48 ;
49 [label="Ca <= 8.345\nentropy = 0.567\nsamples = 15\nvalue = [0, 13, 2, 0, 0, 0]\nclass = 1", fillcolor="#ace957"] ;
48 -> 49 ;
50 [label="entropy = 0.0\nsamples = 11\nvalue = [0, 11, 0, 0, 0, 0]\nclass = 1", fillcolor="#9de539"] ;
49 -> 50 ;
51 [label="RI <= 1.518\nentropy = 1.0\nsamples = 4\nvalue = [0, 2, 2, 0, 0, 0]\nclass = 1", fillcolor="#ffffff"] ;
49 -> 51 ;
52 [label="entropy = 0.0\nsamples = 2\nvalue = [0, 0, 2, 0, 0, 0]\nclass =  ", fillcolor="#39e581"] ;
51 -> 52 ;
53 [label="entropy = 0.0\nsamples = 2\nvalue = [0, 2, 0, 0, 0, 0]\nclass = 1", fillcolor="#9de539"] ;
51 -> 53 ;
54 [label="Mg <= 3.455\nentropy = 0.792\nsamples = 21\nvalue = [5, 16, 0, 0, 0, 0]\nclass = 1", fillcolor="#bced77"] ;
48 -> 54 ;
55 [label="entropy = 0.0\nsamples = 9\nvalue = [0, 9, 0, 0, 0, 0]\nclass = 1", fillcolor="#9de539"] ;
54 -> 55 ;
56 [label="K <= 0.585\nentropy = 0.98\nsamples = 12\nvalue = [5, 7, 0, 0, 0, 0]\nclass = 1", fillcolor="#e3f8c6"] ;
54 -> 56 ;
57 [label="entropy = 0.0\nsamples = 4\nvalue = [4, 0, 0, 0, 0, 0]\nclass = [", fillcolor="#e58139"] ;
56 -> 57 ;
58 [label="Na <= 12.77\nentropy = 0.544\nsamples = 8\nvalue = [1, 7, 0, 0, 0, 0]\nclass = 1", fillcolor="#abe955"] ;
56 -> 58 ;
59 [label="entropy = 0.0\nsamples = 1\nvalue = [1, 0, 0, 0, 0, 0]\nclass = [", fillcolor="#e58139"] ;
58 -> 59 ;
60 [label="entropy = 0.0\nsamples = 7\nvalue = [0, 7, 0, 0, 0, 0]\nclass = 1", fillcolor="#9de539"] ;
58 -> 60 ;
{rank=same ; 0} ;
{rank=same ; 1; 18} ;
{rank=same ; 2; 11; 19; 46} ;
{rank=same ; 3; 6; 12; 15; 20; 25; 48} ;
{rank=same ; 7; 21; 26; 31; 49; 54} ;
{rank=same ; 27; 32; 35; 51; 56} ;
{rank=same ; 36; 39; 58} ;
{rank=same ; 41} ;
{rank=same ; 42} ;
{rank=same ; 4; 5; 8; 9; 10; 13; 14; 16; 17; 22; 23; 24; 28; 29; 30; 33; 34; 37; 38; 40; 43; 44; 45; 47; 50; 52; 53; 55; 57; 59; 60} ;
}